/* 2025-01-23T15:39:16Z */

/* ----------------------------------------------------------------------
Copyright (c) 2022-2023 Neuton.AI, Inc.
*
The source code and its binary form are being made available on the following terms:
Redistribution, use, and modification are permitted provided that the following
conditions are met:
*
1. Redistributions of source code and/or its binary form must retain the above copyright notice,
* this list of conditions (and the disclaimer) either in the body of the source code or in
* the documentation and/or other materials provided with the distribution of the binary form, as
applicable.
*
2. The name of the copyright holder may not be used to endorse or promote products derived from this
* source code or its binary form without specific prior written permission of Neuton.AI, Inc.
*
3. Disclaimer. THIS SOURCE CODE AND ITS BINARY FORM ARE PROVIDED BY THE COPYRIGHT HOLDER "AS IS".
* THE COPYRIGHT HOLDER HEREBY DISCLAIMS ANY EXPRESS OR IMPLIED WARRANTIES, INCLUDING,
* BUT NOT LIMITED TO, THE IMPLIED WARRANTIES OF MERCHANTABILITY AND FITNESS FOR A
* PARTICULAR PURPOSE. IN NO EVENT SHALL THE COPYRIGHT HOLDER BE HELD LIABLE
* FOR ANY DIRECT, INDIRECT, INCIDENTAL, SPECIAL, EXEMPLARY, OR CONSEQUENTIAL
* DAMAGES (INCLUDING, BUT NOT LIMITED TO, PROCUREMENT OF SUBSTITUTE GOODS OR
* SERVICES; LOSS OF USE, DATA, OR PROFITS; INFRINGEMENT OF INTELLECTUAL PROPERTY RIGHTS
* OF THIRD PARTIES; OR BUSINESS INTERRUPTION) HOWEVER CAUSED AND ON ANY THEORY OF LIABILITY,
* WHETHER IN CONTRACT, STRICT LIABILITY, OR TORT (INCLUDING NEGLIGENCE OR OTHERWISE) ARISING
* IN ANY WAY OUT OF THE USE OF THIS SOURCE CODE OR ITS BINARY FORM, EVEN IF ADVISED OF THE
* POSSIBILITY OF SUCH DAMAGE.
---------------------------------------------------------------------- */


static const neuton_weight_t MODEL_WEIGHTS[] = { -13990, 18315, 16618, -10172,
     3864, -2483, -12974, 24351, -31544, -3706, 12334, 32767, -12215, -26301,
     32735, 30652, 12315, -8801, 4439, 5666, -11551, -2214, -32766, 16704, 30122,
     5728, -3887, 6168, 14720, 8281, 13142, -28943, -4791, -667, -25726, -24909,
     23250, -26527, 23709, 32765, -4089, 32765, 9401, 13984, 32765, -32762, -21493,
     32765, -6944, 32758, -11756, 16840, 4658, 21867, 6421, -246, 6683, 32752,
     20520, 20693, 17512, -31743, 4493, 10000, -4637, -15567, 10751, -16403,
     -5472, -13149, 6445, 7350, 30296, 466, 16083, -21153, 25760, 5357, -5066,
     19203, 17223, 123, 16383, -16383, -5560, -31954, 10074, 5708, -29879, -4096,
     -32087, 23768, 8078, 2151, 1847, 32766, -32766, -12817, -32766, 16383, 30368,
     521, -20833, 16807, -17400, 2138, -5304, 10976, 15367, 4744, 10972, -1449,
     -3690, -3542, 11043, -7382, -941, 32764, 32764, -947, -11754, 9910, -20896,
     28716, 28222, -362, -16060, -32766, 21208, 8893, -5964, -18822, -2016, -4041,
     -9433, -21161, 5102, -15331, -14006, 9569, -32751, 5488, 8394, -27670, 14466,
     27482, 6269, -6502, -8765, 2331, -4644, 16701, -30806, -7312, 10615, -3514,
     9256, -26321, 32762, 32767, 25508, 32761, 32760, -16383, 32755, 32760, 32766,
     31548, 32756, 8615, 32752, 32763, -4969, 32767, -17630, 32766, 25552, 15434,
     -16383, -3432, 29485, 32547, 31808, 21862, 16383, -32766, 16383, -12519,
     31171, 27073, 11684, -13738, 393, 6442, -1005, -17467, 27885, -32766, -22196,
     32765, 32765, -15451, -31896, 6199, 8532, 6472, 6427, -16386, -6490, 4059,
     104, -29366, 32766, 3376, 5859, -11610, -3388, 32505, -21560, -11444, -11093,
     14355, -25745, -1400, 31008, 11648, 29428, 9964, 22864, 3597, 23848, 32760,
     -32766, -16383, -32766, -32557, 21575, -28812, -32768, -32768, 25740, 32739,
     -19225, 6050, -20521, -19116, -9165, -969, -13627, 8740, 5080, 5127, 32765,
     -2599, -5141, -228, -32755, -32768, 7257, 15111, 32765, -32766, 28668, -28671,
     1050, -18747, -30629, -29373, -9584, -6158, -32766, 8798, 15003, -3487,
     14119, -9709, 3973, 22116, 8000, 7509, -16383, 19326, 16383, 1674, -16383,
     -32766, -32766, -32766, 32766, -16383, -32766, -2520, -26755, -13760, 5958,
     32758, 792, 3876, -5798, 721, -32766, -6443, -32175, 6675, -31230, -32766,
     4064, -10304, 5386, 32764, 31577, -18085, 14922, 27518, -29079, 27321, -32766,
     7442, -32766, -23924, 23352, -32768, 31447, 3250, 3511, -1762, 5982, 985,
     683, -22320, 27699, -26056, 4292, 3158, 2415, -31857, 30460, 6408, -6773,
     453, 1259, 32755, -29085, 14429, -32766, 25953, -32766, 32514, -32766, -1980,
     -13506, 14480, 21876, 32765, -12096, 29193, -32652, 13384, -7421, 20825,
     -24254, -8473, -17183, -8258, -28265, -2950, -5924, 23413, 10855, 379, -32203,
     16825, 29415, 31009, -32766, -27004, 8679, -1107, 18493, 22656, 8244, -14133,
     -12679, -24093, -20104, -11150, -6758, 32765, -32763, 753, -32761, -5386,
     7679, -32766, -9246, 3912, -32243, 19694, 21229, 9669, -26497, 6770, -10549,
     12225, -30720, 8235, -29300, 16063, -24272, 27400, 16383, -7590, 32766,
     25042, -32764, -18624, -32766, 18863, 5358, -15181, 23383, -27546, -32766,
     7450, 32764, 1645, 3112, -534, 32758, -8275, -18304, -32246, 506, -7238,
     -21837, -3500, 32494, 11773, -31963, -12747, 2843, -16383, -3710, -22736,
     13972, -14566, -32572, 16510, -24015, -2714, 10420, -32766, -1847, -31304,
     30017, -29172, 20003, -32766, -7391, -32766, -13186, -7398, 5680, -744,
     -6989, 594, 5214, 11995, -25510, 32760, 32764, -12045, 8164, -32766, -32766,
     12651, -12575, 16383, 24811, -16777, 16421, 10098, -10749, -8978, 32765,
     4299, -22862, 11055, -29697, -20605, 12284, 19699, -6120, 14453, 9149, 7077,
     -5193, -5585, 32763, 28703, 489, 32169, 24524, 3740, -5078, 8766, 416, -2201,
     30731, -10023, 8281, -26433, 32767, 32741, 7422, -10895, 23463, 32766, -7393,
     30998, -20752, 3266, -19947, -1114, 16383, -32766, 3596, 5823, 2567, -25256,
     -4476, -21800, -32766, 2826, 10120, -28833, 8711, 18642, 31369, 411, 22008,
     -32766, 32746, -5906, 6966, 1006, -14152, 32764, 21265, -26878, 32566, 20282,
     -1951, 32765, 32763, 32760, -8858, 842, -7910, 16511, 2580, -28675, 19690,
     -6326, -32766, 21640, -7892, 1291, -1799, 1500, 134, -32757, 7302, 24949,
     -12546, -13133, -14161, -32768, -32566, -1641, -5483, -2328, -32766, 23307,
     -19168, -15128, 32767, -32768, 32765, -32768, -32768, -32768, 32762, -14604,
     28201, -32768, 11565, 7633, -32742, 32764, 30999, 20351, 21272, -26023,
     4879, 4716, -7107, 20650, -15839, -11455, 288, 32765, -6943, -26328, -32766,
     31939, 14335, 24788, -1664, 873, -6918, -32375, 32765, 32767, -32761, 32765,
     -32768, 23772, 25047, -7801, -32768, 32765, 24012, -32766, -8374, -1564,
     -32768, -32766, 6355, 1122, -9520, -9778, 8384, -32766, -32354, 6806, 27836,
     -367, -32766, -24560, -17234, 4834, 5604, 32763, -26007, 32760, 15073, 19982,
     1641, -23726, -27486, -32532, 2094, -32764, -26736, -25997, 14266, 27988,
     -27542, -32768, -32768, 22034, -29624, 14602, 15541, -31073, -32766, -32766,
     11021, 8755, 24312, 32767, 32765, -31226, 32765, -32768, 25788, -32651,
     19463, 15238, 4321, -2480, 15127, 286, -7874, 8524, 32766, 32766, 7945,
     32763, 9975, -4166, -11061, -20422, -32768, 28656, -32768, -26345, -32768,
     -32768, -16385, -32768, 5855, 9005, 12004, 23107, 4654, -32766, -32766,
     32767, -19628, -32766, -32766, -16383, -32766, -9798, 26612, -28671, -28673,
     32765, 32766, 32765, -32768, 30656, -26495, 32760, -18231, 32766, 21950,
     -32768, -18772 };

static const neuton_sources_num_t MODEL_LINKS[] = { 0, 1, 4, 16, 23, 27, 30,
     47, 56, 60, 61, 65, 68, 69, 70, 73, 80, 0, 4, 12, 18, 19, 20, 27, 28, 29,
     34, 37, 38, 39, 54, 58, 61, 65, 79, 80, 0, 6, 9, 20, 23, 28, 31, 37, 47,
     53, 57, 61, 63, 70, 80, 0, 0, 5, 6, 10, 12, 15, 16, 17, 18, 20, 28, 31,
     51, 53, 59, 61, 62, 63, 77, 80, 0, 2, 3, 1, 7, 37, 54, 62, 63, 64, 68, 79,
     80, 3, 5, 14, 15, 18, 23, 26, 28, 32, 39, 56, 57, 58, 61, 72, 80, 5, 14,
     15, 16, 17, 18, 19, 20, 21, 24, 26, 32, 33, 34, 43, 53, 57, 60, 63, 67,
     73, 74, 76, 78, 80, 0, 1, 4, 5, 4, 13, 15, 37, 41, 45, 47, 50, 54, 55, 58,
     62, 64, 67, 68, 80, 0, 5, 7, 3, 26, 28, 41, 50, 58, 64, 66, 67, 71, 80,
     0, 2, 3, 13, 14, 16, 17, 21, 26, 27, 29, 30, 32, 39, 40, 43, 44, 47, 56,
     59, 60, 73, 74, 80, 0, 9, 80, 0, 1, 5, 12, 18, 27, 28, 30, 38, 57, 58, 80,
     1, 11, 80, 2, 8, 18, 28, 38, 44, 49, 77, 80, 2, 13, 80, 3, 4, 10, 15, 18,
     37, 38, 60, 62, 63, 73, 74, 80, 0, 3, 4, 15, 2, 35, 54, 55, 57, 64, 80,
     4, 16, 80, 5, 16, 14, 15, 18, 22, 31, 80, 6, 7, 15, 18, 26, 78, 80, 6, 19,
     80, 7, 8, 26, 41, 42, 50, 67, 68, 79, 80, 0, 8, 21, 67, 80, 10, 5, 13, 16,
     18, 20, 21, 28, 29, 39, 42, 47, 57, 60, 61, 69, 70, 72, 73, 80, 9, 18, 4,
     68, 80, 0, 10, 0, 13, 17, 61, 66, 80, 0, 9, 19, 25, 1, 15, 17, 47, 54, 58,
     60, 65, 80, 9, 24, 25, 1, 7, 15, 36, 47, 54, 55, 60, 80, 0, 5, 7, 19, 23,
     22, 54, 80, 7, 8, 22, 31, 32, 41, 55, 60, 73, 77, 80, 5, 7, 8, 22, 13, 21,
     39, 55, 65, 67, 80, 7, 21, 22, 38, 42, 44, 50, 54, 67, 80, 7, 10, 21, 26,
     36, 38, 41, 43, 50, 53, 72, 80, 5, 8, 22, 13, 16, 18, 21, 24, 28, 39, 40,
     67, 73, 80, 5, 8, 24, 29, 33, 20, 31, 46, 80, 8, 22, 30, 32, 7, 13, 18,
     19, 28, 35, 51, 64, 65, 67, 80, 10, 25, 34, 37, 38, 46, 47, 50, 60, 73,
     80, 5, 7, 16, 18, 24, 34, 15, 32, 43, 50, 57, 80, 25, 8, 15, 20, 27, 29,
     44, 46, 47, 53, 60, 72, 73, 80, 22, 24, 26, 32, 35, 41, 50, 80, 6, 7, 22,
     26, 29, 32, 35, 39, 0, 25, 39, 41, 51, 64, 77, 80, 7, 21, 26, 32, 35, 16,
     41, 52, 68, 70, 80, 4, 5, 7, 15, 25, 26, 30, 40, 41, 15, 16, 23, 34, 35,
     41, 45, 48, 80, 8, 21, 22, 7, 13, 51, 64, 65, 80, 9, 25, 41, 7, 20, 26,
     34, 39, 47, 49, 54, 57, 59, 72, 74, 80, 9, 10, 16, 25, 44, 7, 15, 18, 31,
     34, 44, 72, 80, 34, 4, 6, 34, 53, 61, 72, 78, 80, 25, 27, 44, 47, 57, 72,
     73, 74, 80, 5, 9, 10, 7, 11, 20, 21, 31, 38, 44, 61, 63, 80, 35, 42, 10,
     34, 80, 7, 21, 39, 40, 41, 42, 49, 80, 10, 25, 1, 38, 44, 57, 60, 72, 73,
     80, 5, 9, 10, 33, 41, 44, 11, 44, 47, 48, 52, 60, 61, 65, 71, 75, 80, 9,
     23, 44, 45, 48, 52, 80, 0, 3, 11, 15, 1, 2, 10, 15, 53, 60, 62, 63, 80,
     0, 3, 11, 54, 1, 10, 15, 23, 80, 0, 3, 7, 11, 24, 31, 10, 38, 63, 80, 0,
     3, 4, 15, 24, 10, 63, 80, 3, 15, 54, 55, 56, 57, 80, 5, 18, 34, 30, 34,
     80, 5, 18, 34, 37, 46, 59, 80, 4, 8, 16, 22, 35, 39, 40, 42, 48, 49, 54,
     57, 47, 57, 60, 80, 8, 22, 29, 30, 33, 35, 43, 61, 80, 4, 25, 48, 1, 3,
     13, 26, 27, 47, 60, 65, 73, 80, 0, 10, 24, 25, 26, 27, 28, 31, 32, 36, 38,
     47, 51, 63, 80 };

static const neuton_weights_num_t MODEL_INTERNAL_LINKS_BOUNDARIES[] = { 0, 18,
     37, 52, 75, 85, 102, 130, 149, 160, 186, 190, 201, 203, 213, 216, 231, 240,
     243, 253, 258, 261, 271, 275, 296, 301, 311, 323, 337, 343, 355, 364, 376,
     387, 403, 411, 425, 439, 446, 464, 475, 488, 503, 515, 524, 542, 551, 560,
     571, 583, 593, 596, 610, 627, 632, 645, 656, 665, 674, 678, 687, 700, 712,
     716, 740 };

static const neuton_weights_num_t MODEL_EXTERNAL_LINKS_BOUNDARIES[] = { 17, 36,
     51, 72, 85, 101, 126, 146, 160, 184, 187, 199, 202, 211, 214, 227, 238,
     241, 249, 256, 259, 269, 274, 294, 299, 307, 320, 332, 340, 351, 362, 372,
     384, 398, 407, 422, 433, 445, 459, 467, 483, 494, 512, 521, 537, 550, 559,
     568, 581, 586, 594, 604, 621, 628, 641, 650, 660, 668, 675, 681, 688, 704,
     713, 726, 741 };

static const neuton_coeff_t MODEL_ACTIVATION_COEFFS[] = { 0, 0, 0, 0, 0, 0, 0,
     0, 0, 0, 17408, 44032, 40939, 0, 40960, 27648, 0, 40960, 64512, 62464, 40957,
     30720, 55296, 0, 0, 0, 0, 0, 0, 55296, 55296, 0, 0, 0, 64512, 0, 0, 64512,
     0, 30720, 64512, 64512, 64512, 0, 0, 0, 64512, 0, 0, 64512, 40959, 0, 0,
     40960, 64512, 64512, 64512, 64512, 40959, 64512, 40959, 0, 40960, 0, 40960 };

static const neuton_u8_t MODEL_ACTIVATION_TYPE_MASK[] = { 0xff, 0xaf, 0xed, 0xff,
     0xff, 0xff, 0xdb, 0xab, 0x00 };

static const neuton_neurons_num_t MODEL_OUTPUT_NEURONS[] = { 64, 12, 14, 58,
     17, 60, 20, 50, 62, 53 };

